2.33180314408e-09,2.46086394342e-09,5.11406218379e-10,-1.51873468285e-09,-3.65167623648e-10,3.42870589645e-10,4.86480531013e-09,1.14672862089e-09,-1.19001742086e-09,3.14096281962e-10,2.12369025247e-10,4.16593319213e-09,-1.08846106384e-09,-7.87743587713e-10,1.94428443133e-09,3.51905334069e-09,1.99221626681e-10,-1.58341926378e-10,2.24892399693e-10,-1.51507186678e-10,1.41917182027e-09,3.1594497122e-12,-1.80399013491e-10,1.56509730735e-09,3.50969819298e-09,6.73018066612e-10,-1.89005576549e-09,-4.09788315898e-10,1.80364271689e-10,4.66022646455e-09,1.26363519523e-09,-1.27181723982e-09,2.74024714307e-10,3.25798907204e-10,3.75623300301e-09,-1.11296405107e-09,-4.63392190957e-10,1.66010898927e-09,3.95634252017e-09,2.20639212785e-10,-2.54697204336e-10,2.07412876948e-10,-2.39389579147e-10,9.84347849162e-10,2.89967114641e-12,-1.37413551304e-10
-2.96999417601e-09,1.64932279669e-09,3.38124215431e-09,-4.20771111027e-09,-2.2113905687e-10,-7.88336066489e-10,5.29409101299e-09,7.60385045766e-10,1.65755977173e-08,3.8379735812e-10,-1.33143389463e-09,-5.06669196736e-10,1.36166355831e-10,6.53688978246e-09,4.03087185993e-09,-3.54928454714e-09,-2.0204520838e-09,-5.92841372806e-09,-2.00248771385e-09,4.34248597331e-10,6.21156104937e-09,-2.14477927911e-11,8.21240115548e-10,-2.05122081746e-09,2.19229844986e-09,4.60920952374e-09,-5.10942773639e-09,-2.45896675066e-10,-4.35140982378e-10,4.94818879728e-09,8.19998505284e-10,1.75496993478e-08,3.30503623253e-10,-1.97401988298e-09,-4.70685297341e-10,1.4204651677e-10,3.66879925842e-09,3.46930738288e-09,-4.03174843075e-09,-2.1377384038e-09,-9.38735836146e-09,-1.92671441488e-09,6.78860176409e-10,4.35432360296e-09,-1.99308419928e-11,6.54727549786e-10
